svm_type c_svc
nr_class 2
num_kernels 26
-t 4 -w 3.2340655259360345 -u 1.2466340879624984 -f Example/Classification/PrecomputedKernels/kernel_0.test
-t 4 -w 1.1724133753326889 -u 1.2466340879624984 -f Example/Classification/PrecomputedKernels/kernel_1.test
-t 4 -w 3.1047681561279736 -u 1.2466340879624984 -f Example/Classification/PrecomputedKernels/kernel_2.test
-t 4 -w 2.4015476004007601 -u 1.2466340879624984 -f Example/Classification/PrecomputedKernels/kernel_3.test
-t 4 -w 1.7802751903835436 -u 1.2466340879624984 -f Example/Classification/PrecomputedKernels/kernel_4.test
-t 4 -w 0.4352022065223638 -u 1.2466340879624984 -f Example/Classification/PrecomputedKernels/kernel_5.test
-t 4 -w 0.41188757982203228 -u 1.2466340879624984 -f Example/Classification/PrecomputedKernels/kernel_6.test
-t 4 -w 1.5949537326957071 -u 1.2466340879624984 -f Example/Classification/PrecomputedKernels/kernel_7.test
-t 4 -w 1.8237018521658734 -u 1.2466340879624984 -f Example/Classification/PrecomputedKernels/kernel_8.test
-t 4 -w 2.8437325680510446 -u 1.2466340879624984 -f Example/Classification/PrecomputedKernels/kernel_9.test
-t 4 -w 2.2467404027126823 -u 1.2466340879624984 -f Example/Classification/PrecomputedKernels/kernel_10.test
-t 4 -w 2.9707338661960727 -u 1.2466340879624984 -f Example/Classification/PrecomputedKernels/kernel_11.test
-t 4 -w 2.8427594770060289 -u 1.2466340879624984 -f Example/Classification/PrecomputedKernels/kernel_12.test
-t 4 -w 0.54549726772632923 -u 1.2466340879624984 -f Example/Classification/PrecomputedKernels/kernel_13.test
-t 4 -w 1.057932521514704 -u 1.2466340879624984 -f Example/Classification/PrecomputedKernels/kernel_14.test
-t 4 -w 2.7868390690318221 -u 1.2466340879624984 -f Example/Classification/PrecomputedKernels/kernel_15.test
-t 4 -w 1.6798617112820891 -u 1.2466340879624984 -f Example/Classification/PrecomputedKernels/kernel_16.test
-t 4 -w 1.3327269582226116 -u 1.2466340879624984 -f Example/Classification/PrecomputedKernels/kernel_17.test
-t 4 -w 0.42771192688839516 -u 1.2466340879624984 -f Example/Classification/PrecomputedKernels/kernel_18.test
-t 4 -w 0.36265559384071389 -u 1.2466340879624984 -f Example/Classification/PrecomputedKernels/kernel_19.test
-t 4 -w 1.1581301639724497 -u 1.2466340879624984 -f Example/Classification/PrecomputedKernels/kernel_20.test
-t 4 -w 1.6384199336121124 -u 1.2466340879624984 -f Example/Classification/PrecomputedKernels/kernel_21.test
-t 4 -w 1.7764412761096839 -u 1.2466340879624984 -f Example/Classification/PrecomputedKernels/kernel_22.test
-t 4 -w 1.5159905040871107 -u 1.2466340879624984 -f Example/Classification/PrecomputedKernels/kernel_23.test
-t 4 -w 2.6576099686812285 -u 1.2466340879624984 -f Example/Classification/PrecomputedKernels/kernel_24.test
-t 4 -w 2.1939963681886572 -u 1.2466340879624984 -f Example/Classification/PrecomputedKernels/kernel_25.test
total_sv 85
rho -0.0051572377290902008
label -1 1
nr_sv 41 44
SV
10 0:0 
8.051874661062481 0:31 
10 0:37 
10 0:45 
10 0:57 
7.9455679408832429 0:62 
10 0:65 
7.2997272684740953 0:69 
10 0:72 
10 0:83 
10 0:87 
10 0:98 
10 0:101 
10 0:103 
3.496744888680523 0:108 
3.4779229988327476 0:109 
10 0:112 
10 0:118 
10 0:121 
10 0:130 
10 0:131 
2.1452357777049982 0:132 
10 0:135 
10 0:136 
10 0:141 
10 0:150 
10 0:161 
10 0:166 
10 0:168 
1.6048126242331988 0:169 
10 0:172 
6.3833314651257185 0:174 
10 0:175 
10 0:178 
2.7904418945206686 0:184 
10 0:185 
10 0:189 
10 0:194 
3.5243276560099908 0:195 
10 0:207 
10 0:212 
-0.44788647367002554 0:1 
-3.5688778216781367 0:6 
-4.0857554818035089 0:7 
-10 0:10 
-10 0:14 
-10 0:18 
-10 0:22 
-10 0:26 
-3.1730236677143857 0:27 
-2.4441864926104446 0:33 
-10 0:39 
-5.0834822033850999 0:40 
-1.6095179182965265 0:51 
-2.3076564444085772 0:58 
-10 0:63 
-6.4262860128684078 0:64 
-10 0:66 
-10 0:68 
-7.2394670557780643 0:70 
-10 0:74 
-10 0:79 
-10 0:80 
-7.9057595065996917 0:96 
-10 0:97 
-10 0:99 
-10 0:113 
-4.2027632236206278 0:115 
-10 0:117 
-9.1797285746438426 0:119 
-10 0:122 
-9.802212839184774 0:123 
-10 0:129 
-6.803238742413046 0:133 
-10 0:152 
-10 0:162 
-10 0:173 
-2.440144716852505 0:179 
-10 0:182 
-10 0:186 
-10 0:192 
-10 0:206 
-10 0:208 
-10 0:210 
-10 0:211 
